digraph Tree {
node [shape=box, style="filled, rounded", color="black", fontname="helvetica"] ;
edge [fontname="helvetica"] ;
0 [label="gender_male <= 0.5\ngini = 0.477\nsamples = 712\nvalue = [433, 279]\nclass = Died", fillcolor="#f6d2b9"] ;
1 [label="class_3rd <= 0.5\ngini = 0.348\nsamples = 250\nvalue = [56, 194]\nclass = Survived", fillcolor="#72b9ed"] ;
0 -> 1 [labeldistance=2.5, labelangle=45, headlabel="True"] ;
2 [label="class_2nd <= 0.5\ngini = 0.118\nsamples = 143\nvalue = [9, 134]\nclass = Survived", fillcolor="#46a4e7"] ;
1 -> 2 ;
3 [label="adult_or_child_Child <= 0.5\ngini = 0.072\nsamples = 80\nvalue = [3, 77]\nclass = Survived", fillcolor="#41a1e6"] ;
2 -> 3 ;
4 [label="gini = 0.056\nsamples = 69\nvalue = [2, 67]\nclass = Survived", fillcolor="#3fa0e6"] ;
3 -> 4 ;
5 [label="gini = 0.165\nsamples = 11\nvalue = [1, 10]\nclass = Survived", fillcolor="#4da7e8"] ;
3 -> 5 ;
6 [label="adult_or_child_Adult <= 0.5\ngini = 0.172\nsamples = 63\nvalue = [6, 57]\nclass = Survived", fillcolor="#4ea7e8"] ;
2 -> 6 ;
7 [label="gini = 0.0\nsamples = 14\nvalue = [0, 14]\nclass = Survived", fillcolor="#399de5"] ;
6 -> 7 ;
8 [label="gini = 0.215\nsamples = 49\nvalue = [6, 43]\nclass = Survived", fillcolor="#55abe9"] ;
6 -> 8 ;
9 [label="embarked_Southampton <= 0.5\ngini = 0.493\nsamples = 107\nvalue = [47, 60]\nclass = Survived", fillcolor="#d4eaf9"] ;
1 -> 9 ;
10 [label="adult_or_child_Adult <= 0.5\ngini = 0.395\nsamples = 48\nvalue = [13, 35]\nclass = Survived", fillcolor="#83c1ef"] ;
9 -> 10 ;
11 [label="gini = 0.363\nsamples = 42\nvalue = [10, 32]\nclass = Survived", fillcolor="#77bced"] ;
10 -> 11 ;
12 [label="gini = 0.5\nsamples = 6\nvalue = [3, 3]\nclass = Died", fillcolor="#ffffff"] ;
10 -> 12 ;
13 [label="title_Mrs <= 0.5\ngini = 0.488\nsamples = 59\nvalue = [34, 25]\nclass = Died", fillcolor="#f8decb"] ;
9 -> 13 ;
14 [label="gini = 0.47\nsamples = 37\nvalue = [23, 14]\nclass = Died", fillcolor="#f5ceb2"] ;
13 -> 14 ;
15 [label="gini = 0.5\nsamples = 22\nvalue = [11, 11]\nclass = Died", fillcolor="#ffffff"] ;
13 -> 15 ;
16 [label="class_1st <= 0.5\ngini = 0.3\nsamples = 462\nvalue = [377, 85]\nclass = Died", fillcolor="#eb9d66"] ;
0 -> 16 [labeldistance=2.5, labelangle=-45, headlabel="False"] ;
17 [label="title_Master <= 0.5\ngini = 0.226\nsamples = 369\nvalue = [321, 48]\nclass = Died", fillcolor="#e99457"] ;
16 -> 17 ;
18 [label="title_Mr <= 0.5\ngini = 0.167\nsamples = 338\nvalue = [307, 31]\nclass = Died", fillcolor="#e88e4d"] ;
17 -> 18 ;
19 [label="gini = 0.0\nsamples = 6\nvalue = [6, 0]\nclass = Died", fillcolor="#e58139"] ;
18 -> 19 ;
20 [label="gini = 0.169\nsamples = 332\nvalue = [301, 31]\nclass = Died", fillcolor="#e88e4d"] ;
18 -> 20 ;
21 [label="class_2nd <= 0.5\ngini = 0.495\nsamples = 31\nvalue = [14, 17]\nclass = Survived", fillcolor="#dceefa"] ;
17 -> 21 ;
22 [label="gini = 0.486\nsamples = 24\nvalue = [14, 10]\nclass = Died", fillcolor="#f8dbc6"] ;
21 -> 22 ;
23 [label="gini = 0.0\nsamples = 7\nvalue = [0, 7]\nclass = Survived", fillcolor="#399de5"] ;
21 -> 23 ;
24 [label="title_Sir <= 0.5\ngini = 0.479\nsamples = 93\nvalue = [56, 37]\nclass = Died", fillcolor="#f6d4bc"] ;
16 -> 24 ;
25 [label="title_Master <= 0.5\ngini = 0.476\nsamples = 92\nvalue = [56, 36]\nclass = Died", fillcolor="#f6d2b8"] ;
24 -> 25 ;
26 [label="gini = 0.473\nsamples = 91\nvalue = [56, 35]\nclass = Died", fillcolor="#f5d0b5"] ;
25 -> 26 ;
27 [label="gini = 0.0\nsamples = 1\nvalue = [0, 1]\nclass = Survived", fillcolor="#399de5"] ;
25 -> 27 ;
28 [label="gini = 0.0\nsamples = 1\nvalue = [0, 1]\nclass = Survived", fillcolor="#399de5"] ;
24 -> 28 ;
}